digraph Tree {
node [shape=box, style="filled, rounded", color="black", fontname=helvetica] ;
edge [fontname=helvetica] ;
0 [label="perimeter_mean <= 98.825\ngini = 0.423\nsamples = 244\nvalue = [277, 121]", fillcolor="#e5813990"] ;
1 [label="perimeter_mean <= 85.25\ngini = 0.184\nsamples = 183\nvalue = [272, 31]", fillcolor="#e58139e2"] ;
0 -> 1 [labeldistance=2.5, labelangle=45, headlabel="True"] ;
2 [label="smoothness_mean <= 0.109\ngini = 0.05\nsamples = 118\nvalue = [189, 5]", fillcolor="#e58139f8"] ;
1 -> 2 ;
3 [label="symmetry_mean <= 0.159\ngini = 0.012\nsamples = 105\nvalue = [167, 1]", fillcolor="#e58139fd"] ;
2 -> 3 ;
4 [label="symmetry_mean <= 0.158\ngini = 0.043\nsamples = 31\nvalue = [44, 1]", fillcolor="#e58139f9"] ;
3 -> 4 ;
5 [label="gini = 0.0\nsamples = 30\nvalue = [44, 0]", fillcolor="#e58139ff"] ;
4 -> 5 ;
6 [label="gini = 0.0\nsamples = 1\nvalue = [0, 1]", fillcolor="#399de5ff"] ;
4 -> 6 ;
7 [label="gini = 0.0\nsamples = 74\nvalue = [123, 0]", fillcolor="#e58139ff"] ;
3 -> 7 ;
8 [label="texture_mean <= 19.355\ngini = 0.26\nsamples = 13\nvalue = [22, 4]", fillcolor="#e58139d1"] ;
2 -> 8 ;
9 [label="smoothness_mean <= 0.11\ngini = 0.083\nsamples = 11\nvalue = [22, 1]", fillcolor="#e58139f3"] ;
8 -> 9 ;
10 [label="gini = 0.0\nsamples = 1\nvalue = [0, 1]", fillcolor="#399de5ff"] ;
9 -> 10 ;
11 [label="gini = 0.0\nsamples = 10\nvalue = [22, 0]", fillcolor="#e58139ff"] ;
9 -> 11 ;
12 [label="gini = 0.0\nsamples = 2\nvalue = [0, 3]", fillcolor="#399de5ff"] ;
8 -> 12 ;
13 [label="texture_mean <= 18.98\ngini = 0.363\nsamples = 65\nvalue = [83, 26]", fillcolor="#e58139af"] ;
1 -> 13 ;
14 [label="symmetry_mean <= 0.212\ngini = 0.089\nsamples = 36\nvalue = [61, 3]", fillcolor="#e58139f2"] ;
13 -> 14 ;
15 [label="gini = 0.0\nsamples = 33\nvalue = [58, 0]", fillcolor="#e58139ff"] ;
14 -> 15 ;
16 [label="smoothness_mean <= 0.123\ngini = 0.5\nsamples = 3\nvalue = [3, 3]", fillcolor="#e5813900"] ;
14 -> 16 ;
17 [label="gini = 0.0\nsamples = 2\nvalue = [0, 3]", fillcolor="#399de5ff"] ;
16 -> 17 ;
18 [label="gini = 0.0\nsamples = 1\nvalue = [3, 0]", fillcolor="#e58139ff"] ;
16 -> 18 ;
19 [label="symmetry_mean <= 0.19\ngini = 0.5\nsamples = 29\nvalue = [22, 23]", fillcolor="#399de50b"] ;
13 -> 19 ;
20 [label="perimeter_mean <= 86.545\ngini = 0.475\nsamples = 23\nvalue = [22, 14]", fillcolor="#e581395d"] ;
19 -> 20 ;
21 [label="gini = 0.0\nsamples = 3\nvalue = [0, 3]", fillcolor="#399de5ff"] ;
20 -> 21 ;
22 [label="smoothness_mean <= 0.091\ngini = 0.444\nsamples = 20\nvalue = [22, 11]", fillcolor="#e581397f"] ;
20 -> 22 ;
23 [label="gini = 0.0\nsamples = 13\nvalue = [19, 0]", fillcolor="#e58139ff"] ;
22 -> 23 ;
24 [label="perimeter_mean <= 87.475\ngini = 0.337\nsamples = 7\nvalue = [3, 11]", fillcolor="#399de5b9"] ;
22 -> 24 ;
25 [label="gini = 0.0\nsamples = 2\nvalue = [3, 0]", fillcolor="#e58139ff"] ;
24 -> 25 ;
26 [label="gini = 0.0\nsamples = 5\nvalue = [0, 11]", fillcolor="#399de5ff"] ;
24 -> 26 ;
27 [label="gini = 0.0\nsamples = 6\nvalue = [0, 9]", fillcolor="#399de5ff"] ;
19 -> 27 ;
28 [label="texture_mean <= 14.135\ngini = 0.1\nsamples = 61\nvalue = [5, 90]", fillcolor="#399de5f1"] ;
0 -> 28 [labeldistance=2.5, labelangle=-45, headlabel="False"] ;
29 [label="symmetry_mean <= 0.189\ngini = 0.408\nsamples = 3\nvalue = [5, 2]", fillcolor="#e5813999"] ;
28 -> 29 ;
30 [label="gini = 0.0\nsamples = 2\nvalue = [5, 0]", fillcolor="#e58139ff"] ;
29 -> 30 ;
31 [label="gini = 0.0\nsamples = 1\nvalue = [0, 2]", fillcolor="#399de5ff"] ;
29 -> 31 ;
32 [label="gini = 0.0\nsamples = 58\nvalue = [0, 88]", fillcolor="#399de5ff"] ;
28 -> 32 ;
}